#pragma once
namespace Eloquent {
    namespace ML {
        namespace Port {
            class RandomForest {
                public:
                    /**
                    * Predict class for features vector
                    */
                    int predict(float *x) {
                        uint8_t votes[2] = { 0 };
                        // tree #1
                        if (x[11] <= 2977.0) {
                            if (x[23] <= 2957.5) {
                                if (x[10] <= 3375.0) {
                                    votes[1] += 1;
                                }

                                else {
                                    votes[0] += 1;
                                }
                            }

                            else {
                                if (x[24] <= 4467.5) {
                                    votes[0] += 1;
                                }

                                else {
                                    votes[1] += 1;
                                }
                            }
                        }

                        else {
                            if (x[120] <= -112.0) {
                                votes[1] += 1;
                            }

                            else {
                                if (x[83] <= 179.5) {
                                    votes[0] += 1;
                                }

                                else {
                                    votes[1] += 1;
                                }
                            }
                        }

                        // tree #2
                        if (x[38] <= 3238.0) {
                            if (x[14] <= 2897.0) {
                                if (x[5] <= 2789.0) {
                                    votes[1] += 1;
                                }

                                else {
                                    votes[0] += 1;
                                }
                            }

                            else {
                                if (x[110] <= 283.0) {
                                    votes[0] += 1;
                                }

                                else {
                                    votes[1] += 1;
                                }
                            }
                        }

                        else {
                            if (x[38] <= 4655.5) {
                                if (x[115] <= 128.0) {
                                    votes[0] += 1;
                                }

                                else {
                                    votes[1] += 1;
                                }
                            }

                            else {
                                if (x[58] <= 2333.0) {
                                    votes[1] += 1;
                                }

                                else {
                                    votes[0] += 1;
                                }
                            }
                        }

                        // tree #3
                        if (x[54] <= 3319.0) {
                            if (x[15] <= 3167.0) {
                                if (x[8] <= 3250.5) {
                                    votes[1] += 1;
                                }

                                else {
                                    votes[0] += 1;
                                }
                            }

                            else {
                                if (x[84] <= 341.0) {
                                    votes[0] += 1;
                                }

                                else {
                                    votes[1] += 1;
                                }
                            }
                        }

                        else {
                            if (x[58] <= 1496.5) {
                                if (x[126] <= 54.0) {
                                    votes[0] += 1;
                                }

                                else {
                                    votes[1] += 1;
                                }
                            }

                            else {
                                votes[0] += 1;
                            }
                        }

                        // tree #4
                        if (x[11] <= 991.5) {
                            if (x[0] <= 3237.0) {
                                if (x[23] <= 2943.5) {
                                    votes[1] += 1;
                                }

                                else {
                                    votes[0] += 1;
                                }
                            }

                            else {
                                if (x[3] <= 631.0) {
                                    votes[1] += 1;
                                }

                                else {
                                    votes[0] += 1;
                                }
                            }
                        }

                        else {
                            if (x[68] <= 83.0) {
                                if (x[86] <= -215.0) {
                                    votes[1] += 1;
                                }

                                else {
                                    votes[0] += 1;
                                }
                            }

                            else {
                                votes[1] += 1;
                            }
                        }

                        // tree #5
                        if (x[12] <= 985.5) {
                            if (x[1] <= 3352.0) {
                                if (x[4] <= 2770.5) {
                                    votes[1] += 1;
                                }

                                else {
                                    votes[1] += 1;
                                }
                            }

                            else {
                                if (x[121] <= -2.5) {
                                    votes[1] += 1;
                                }

                                else {
                                    votes[0] += 1;
                                }
                            }
                        }

                        else {
                            if (x[93] <= 65.5) {
                                if (x[60] <= -271.5) {
                                    votes[1] += 1;
                                }

                                else {
                                    votes[0] += 1;
                                }
                            }

                            else {
                                if (x[13] <= 2928.0) {
                                    votes[1] += 1;
                                }

                                else {
                                    votes[0] += 1;
                                }
                            }
                        }

                        // tree #6
                        if (x[19] <= 2981.5) {
                            if (x[8] <= 2135.0) {
                                if (x[3] <= 2627.0) {
                                    votes[1] += 1;
                                }

                                else {
                                    votes[1] += 1;
                                }
                            }

                            else {
                                if (x[59] <= 58.5) {
                                    votes[0] += 1;
                                }

                                else {
                                    votes[1] += 1;
                                }
                            }
                        }

                        else {
                            if (x[74] <= 78.5) {
                                if (x[32] <= -696.0) {
                                    votes[1] += 1;
                                }

                                else {
                                    votes[0] += 1;
                                }
                            }

                            else {
                                votes[1] += 1;
                            }
                        }

                        // tree #7
                        if (x[8] <= 2120.5) {
                            if (x[6] <= 2772.0) {
                                if (x[17] <= 1508.0) {
                                    votes[1] += 1;
                                }

                                else {
                                    votes[1] += 1;
                                }
                            }

                            else {
                                if (x[57] <= 1135.0) {
                                    votes[0] += 1;
                                }

                                else {
                                    votes[1] += 1;
                                }
                            }
                        }

                        else {
                            if (x[71] <= 80.0) {
                                if (x[122] <= 61.5) {
                                    votes[0] += 1;
                                }

                                else {
                                    votes[1] += 1;
                                }
                            }

                            else {
                                if (x[18] <= -1082.0) {
                                    votes[0] += 1;
                                }

                                else {
                                    votes[1] += 1;
                                }
                            }
                        }

                        // tree #8
                        if (x[11] <= 2977.0) {
                            if (x[0] <= 2970.0) {
                                if (x[15] <= 3378.0) {
                                    votes[1] += 1;
                                }

                                else {
                                    votes[0] += 1;
                                }
                            }

                            else {
                                if (x[2] <= 613.0) {
                                    votes[1] += 1;
                                }

                                else {
                                    votes[0] += 1;
                                }
                            }
                        }

                        else {
                            if (x[65] <= 102.0) {
                                if (x[72] <= -202.0) {
                                    votes[1] += 1;
                                }

                                else {
                                    votes[0] += 1;
                                }
                            }

                            else {
                                votes[1] += 1;
                            }
                        }

                        // tree #9
                        if (x[11] <= 1007.5) {
                            if (x[5] <= 1579.5) {
                                if (x[19] <= 3159.5) {
                                    votes[1] += 1;
                                }

                                else {
                                    votes[0] += 1;
                                }
                            }

                            else {
                                if (x[102] <= -18.0) {
                                    votes[1] += 1;
                                }

                                else {
                                    votes[0] += 1;
                                }
                            }
                        }

                        else {
                            if (x[71] <= 141.0) {
                                if (x[84] <= 210.0) {
                                    votes[0] += 1;
                                }

                                else {
                                    votes[1] += 1;
                                }
                            }

                            else {
                                if (x[55] <= -633.5) {
                                    votes[0] += 1;
                                }

                                else {
                                    votes[1] += 1;
                                }
                            }
                        }

                        // tree #10
                        if (x[4] <= 3044.0) {
                            if (x[13] <= 1622.5) {
                                if (x[53] <= 3319.0) {
                                    votes[1] += 1;
                                }

                                else {
                                    votes[1] += 1;
                                }
                            }

                            else {
                                if (x[60] <= 43.5) {
                                    votes[0] += 1;
                                }

                                else {
                                    votes[1] += 1;
                                }
                            }
                        }

                        else {
                            if (x[52] <= -114.0) {
                                votes[1] += 1;
                            }

                            else {
                                if (x[0] <= 3959.0) {
                                    votes[0] += 1;
                                }

                                else {
                                    votes[1] += 1;
                                }
                            }
                        }

                        // tree #11
                        if (x[8] <= 2800.5) {
                            if (x[15] <= 3555.5) {
                                if (x[4] <= 2800.5) {
                                    votes[1] += 1;
                                }

                                else {
                                    votes[0] += 1;
                                }
                            }

                            else {
                                if (x[14] <= 1051.5) {
                                    votes[1] += 1;
                                }

                                else {
                                    votes[0] += 1;
                                }
                            }
                        }

                        else {
                            if (x[73] <= -67.5) {
                                votes[1] += 1;
                            }

                            else {
                                if (x[88] <= -44.0) {
                                    votes[1] += 1;
                                }

                                else {
                                    votes[0] += 1;
                                }
                            }
                        }

                        // tree #12
                        if (x[5] <= 2800.5) {
                            if (x[11] <= 3441.0) {
                                if (x[9] <= -843.5) {
                                    votes[1] += 1;
                                }

                                else {
                                    votes[1] += 1;
                                }
                            }

                            else {
                                if (x[117] <= 261.0) {
                                    votes[0] += 1;
                                }

                                else {
                                    votes[1] += 1;
                                }
                            }
                        }

                        else {
                            if (x[75] <= 106.5) {
                                if (x[6] <= -1080.0) {
                                    votes[1] += 1;
                                }

                                else {
                                    votes[0] += 1;
                                }
                            }

                            else {
                                if (x[85] <= 3258.0) {
                                    votes[1] += 1;
                                }

                                else {
                                    votes[0] += 1;
                                }
                            }
                        }

                        // tree #13
                        if (x[15] <= 2874.5) {
                            if (x[0] <= 2967.5) {
                                if (x[12] <= 1295.0) {
                                    votes[1] += 1;
                                }

                                else {
                                    votes[1] += 1;
                                }
                            }

                            else {
                                if (x[4] <= 658.5) {
                                    votes[1] += 1;
                                }

                                else {
                                    votes[0] += 1;
                                }
                            }
                        }

                        else {
                            if (x[78] <= -167.5) {
                                votes[1] += 1;
                            }

                            else {
                                if (x[101] <= -631.5) {
                                    votes[1] += 1;
                                }

                                else {
                                    votes[0] += 1;
                                }
                            }
                        }

                        // tree #14
                        if (x[10] <= 2744.5) {
                            if (x[13] <= 2879.5) {
                                if (x[6] <= 2695.0) {
                                    votes[1] += 1;
                                }

                                else {
                                    votes[0] += 1;
                                }
                            }

                            else {
                                if (x[63] <= 1032.5) {
                                    votes[0] += 1;
                                }

                                else {
                                    votes[1] += 1;
                                }
                            }
                        }

                        else {
                            if (x[110] <= 344.0) {
                                if (x[106] <= -136.0) {
                                    votes[1] += 1;
                                }

                                else {
                                    votes[0] += 1;
                                }
                            }

                            else {
                                if (x[50] <= 1926.5) {
                                    votes[1] += 1;
                                }

                                else {
                                    votes[0] += 1;
                                }
                            }
                        }

                        // tree #15
                        if (x[11] <= 978.0) {
                            if (x[5] <= 1114.0) {
                                if (x[119] <= 2895.5) {
                                    votes[1] += 1;
                                }

                                else {
                                    votes[0] += 1;
                                }
                            }

                            else {
                                if (x[0] <= 2080.0) {
                                    votes[1] += 1;
                                }

                                else {
                                    votes[0] += 1;
                                }
                            }
                        }

                        else {
                            if (x[94] <= 64.5) {
                                if (x[106] <= 77.0) {
                                    votes[0] += 1;
                                }

                                else {
                                    votes[1] += 1;
                                }
                            }

                            else {
                                if (x[33] <= 4330.0) {
                                    votes[1] += 1;
                                }

                                else {
                                    votes[0] += 1;
                                }
                            }
                        }

                        // tree #16
                        if (x[1] <= 2857.5) {
                            if (x[14] <= 3166.5) {
                                if (x[15] <= 3050.0) {
                                    votes[1] += 1;
                                }

                                else {
                                    votes[0] += 1;
                                }
                            }

                            else {
                                if (x[102] <= 788.0) {
                                    votes[0] += 1;
                                }

                                else {
                                    votes[1] += 1;
                                }
                            }
                        }

                        else {
                            if (x[4] <= 658.5) {
                                if (x[31] <= 920.5) {
                                    votes[1] += 1;
                                }

                                else {
                                    votes[0] += 1;
                                }
                            }

                            else {
                                if (x[94] <= 38.5) {
                                    votes[0] += 1;
                                }

                                else {
                                    votes[1] += 1;
                                }
                            }
                        }

                        // tree #17
                        if (x[5] <= 2800.5) {
                            if (x[7] <= 1578.5) {
                                if (x[24] <= 2952.5) {
                                    votes[1] += 1;
                                }

                                else {
                                    votes[0] += 1;
                                }
                            }

                            else {
                                if (x[100] <= 52.5) {
                                    votes[0] += 1;
                                }

                                else {
                                    votes[1] += 1;
                                }
                            }
                        }

                        else {
                            if (x[122] <= 54.5) {
                                if (x[120] <= 506.0) {
                                    votes[0] += 1;
                                }

                                else {
                                    votes[1] += 1;
                                }
                            }

                            else {
                                votes[1] += 1;
                            }
                        }

                        // tree #18
                        if (x[11] <= 2939.5) {
                            if (x[13] <= 2910.0) {
                                if (x[8] <= 2800.5) {
                                    votes[1] += 1;
                                }

                                else {
                                    votes[0] += 1;
                                }
                            }

                            else {
                                if (x[31] <= 2.0) {
                                    votes[1] += 1;
                                }

                                else {
                                    votes[0] += 1;
                                }
                            }
                        }

                        else {
                            if (x[91] <= 66.5) {
                                if (x[104] <= -21.5) {
                                    votes[1] += 1;
                                }

                                else {
                                    votes[0] += 1;
                                }
                            }

                            else {
                                if (x[39] <= 3466.5) {
                                    votes[1] += 1;
                                }

                                else {
                                    votes[0] += 1;
                                }
                            }
                        }

                        // tree #19
                        if (x[40] <= 3353.0) {
                            if (x[8] <= 1769.0) {
                                if (x[11] <= 2815.0) {
                                    votes[1] += 1;
                                }

                                else {
                                    votes[0] += 1;
                                }
                            }

                            else {
                                if (x[52] <= 101.5) {
                                    votes[0] += 1;
                                }

                                else {
                                    votes[1] += 1;
                                }
                            }
                        }

                        else {
                            if (x[62] <= -227.0) {
                                votes[1] += 1;
                            }

                            else {
                                votes[0] += 1;
                            }
                        }

                        // tree #20
                        if (x[19] <= 2755.0) {
                            if (x[5] <= 2896.5) {
                                if (x[13] <= 1945.0) {
                                    votes[1] += 1;
                                }

                                else {
                                    votes[1] += 1;
                                }
                            }

                            else {
                                if (x[96] <= 143.0) {
                                    votes[0] += 1;
                                }

                                else {
                                    votes[1] += 1;
                                }
                            }
                        }

                        else {
                            if (x[70] <= -277.0) {
                                if (x[57] <= 1852.0) {
                                    votes[0] += 1;
                                }

                                else {
                                    votes[1] += 1;
                                }
                            }

                            else {
                                if (x[89] <= 3147.0) {
                                    votes[0] += 1;
                                }

                                else {
                                    votes[1] += 1;
                                }
                            }
                        }

                        // tree #21
                        if (x[37] <= 3210.5) {
                            if (x[15] <= 2874.0) {
                                if (x[1] <= 3373.5) {
                                    votes[1] += 1;
                                }

                                else {
                                    votes[0] += 1;
                                }
                            }

                            else {
                                if (x[73] <= 421.0) {
                                    votes[0] += 1;
                                }

                                else {
                                    votes[1] += 1;
                                }
                            }
                        }

                        else {
                            if (x[114] <= 136.0) {
                                if (x[104] <= -155.0) {
                                    votes[1] += 1;
                                }

                                else {
                                    votes[0] += 1;
                                }
                            }

                            else {
                                votes[1] += 1;
                            }
                        }

                        // tree #22
                        if (x[12] <= 2038.5) {
                            if (x[7] <= 3148.5) {
                                if (x[41] <= 2635.5) {
                                    votes[1] += 1;
                                }

                                else {
                                    votes[1] += 1;
                                }
                            }

                            else {
                                if (x[117] <= -36.0) {
                                    votes[1] += 1;
                                }

                                else {
                                    votes[0] += 1;
                                }
                            }
                        }

                        else {
                            if (x[67] <= 51.5) {
                                if (x[127] <= 567.0) {
                                    votes[0] += 1;
                                }

                                else {
                                    votes[1] += 1;
                                }
                            }

                            else {
                                votes[1] += 1;
                            }
                        }

                        // tree #23
                        if (x[13] <= 2908.0) {
                            if (x[24] <= 3064.5) {
                                if (x[6] <= 2784.5) {
                                    votes[1] += 1;
                                }

                                else {
                                    votes[0] += 1;
                                }
                            }

                            else {
                                if (x[81] <= 2415.0) {
                                    votes[0] += 1;
                                }

                                else {
                                    votes[1] += 1;
                                }
                            }
                        }

                        else {
                            if (x[79] <= 192.0) {
                                votes[0] += 1;
                            }

                            else {
                                votes[1] += 1;
                            }
                        }

                        // tree #24
                        if (x[5] <= 2896.5) {
                            if (x[14] <= 3390.0) {
                                if (x[8] <= 2865.0) {
                                    votes[1] += 1;
                                }

                                else {
                                    votes[0] += 1;
                                }
                            }

                            else {
                                if (x[85] <= 2.5) {
                                    votes[1] += 1;
                                }

                                else {
                                    votes[0] += 1;
                                }
                            }
                        }

                        else {
                            if (x[11] <= -1119.0) {
                                votes[1] += 1;
                            }

                            else {
                                if (x[55] <= 37.5) {
                                    votes[0] += 1;
                                }

                                else {
                                    votes[1] += 1;
                                }
                            }
                        }

                        // tree #25
                        if (x[28] <= 3288.0) {
                            if (x[11] <= 1007.5) {
                                if (x[2] <= 3215.5) {
                                    votes[1] += 1;
                                }

                                else {
                                    votes[1] += 1;
                                }
                            }

                            else {
                                if (x[60] <= 69.0) {
                                    votes[0] += 1;
                                }

                                else {
                                    votes[1] += 1;
                                }
                            }
                        }

                        else {
                            if (x[12] <= 20.5) {
                                if (x[34] <= -729.0) {
                                    votes[0] += 1;
                                }

                                else {
                                    votes[1] += 1;
                                }
                            }

                            else {
                                if (x[117] <= 1971.5) {
                                    votes[0] += 1;
                                }

                                else {
                                    votes[1] += 1;
                                }
                            }
                        }

                        // tree #26
                        if (x[12] <= 3285.0) {
                            if (x[34] <= 3288.0) {
                                if (x[10] <= 3061.0) {
                                    votes[1] += 1;
                                }

                                else {
                                    votes[0] += 1;
                                }
                            }

                            else {
                                if (x[33] <= 4507.5) {
                                    votes[0] += 1;
                                }

                                else {
                                    votes[1] += 1;
                                }
                            }
                        }

                        else {
                            if (x[125] <= -264.0) {
                                votes[1] += 1;
                            }

                            else {
                                if (x[42] <= -604.0) {
                                    votes[1] += 1;
                                }

                                else {
                                    votes[0] += 1;
                                }
                            }
                        }

                        // tree #27
                        if (x[3] <= 2995.5) {
                            if (x[6] <= 2784.5) {
                                if (x[21] <= 3483.5) {
                                    votes[1] += 1;
                                }

                                else {
                                    votes[0] += 1;
                                }
                            }

                            else {
                                if (x[116] <= 16.0) {
                                    votes[1] += 1;
                                }

                                else {
                                    votes[0] += 1;
                                }
                            }
                        }

                        else {
                            if (x[0] <= 3932.0) {
                                if (x[96] <= -7.0) {
                                    votes[1] += 1;
                                }

                                else {
                                    votes[0] += 1;
                                }
                            }

                            else {
                                if (x[37] <= 2212.0) {
                                    votes[1] += 1;
                                }

                                else {
                                    votes[0] += 1;
                                }
                            }
                        }

                        // tree #28
                        if (x[10] <= 2808.0) {
                            if (x[13] <= 2910.0) {
                                if (x[5] <= 1093.0) {
                                    votes[1] += 1;
                                }

                                else {
                                    votes[1] += 1;
                                }
                            }

                            else {
                                if (x[40] <= -174.5) {
                                    votes[1] += 1;
                                }

                                else {
                                    votes[0] += 1;
                                }
                            }
                        }

                        else {
                            if (x[9] <= 4479.5) {
                                if (x[101] <= -31.5) {
                                    votes[1] += 1;
                                }

                                else {
                                    votes[0] += 1;
                                }
                            }

                            else {
                                votes[1] += 1;
                            }
                        }

                        // tree #29
                        if (x[14] <= 2872.0) {
                            if (x[10] <= 2808.0) {
                                if (x[5] <= 2896.5) {
                                    votes[1] += 1;
                                }

                                else {
                                    votes[0] += 1;
                                }
                            }

                            else {
                                if (x[89] <= 219.5) {
                                    votes[0] += 1;
                                }

                                else {
                                    votes[1] += 1;
                                }
                            }
                        }

                        else {
                            if (x[104] <= 70.5) {
                                if (x[65] <= 1599.5) {
                                    votes[0] += 1;
                                }

                                else {
                                    votes[1] += 1;
                                }
                            }

                            else {
                                if (x[91] <= 523.0) {
                                    votes[1] += 1;
                                }

                                else {
                                    votes[0] += 1;
                                }
                            }
                        }

                        // tree #30
                        if (x[12] <= 910.5) {
                            if (x[15] <= 2802.5) {
                                if (x[33] <= 3459.5) {
                                    votes[1] += 1;
                                }

                                else {
                                    votes[0] += 1;
                                }
                            }

                            else {
                                if (x[79] <= -103.5) {
                                    votes[1] += 1;
                                }

                                else {
                                    votes[0] += 1;
                                }
                            }
                        }

                        else {
                            if (x[100] <= 199.5) {
                                if (x[65] <= 66.0) {
                                    votes[0] += 1;
                                }

                                else {
                                    votes[1] += 1;
                                }
                            }

                            else {
                                votes[1] += 1;
                            }
                        }

                        // tree #31
                        if (x[10] <= 3302.5) {
                            if (x[4] <= 2896.5) {
                                if (x[8] <= 960.5) {
                                    votes[1] += 1;
                                }

                                else {
                                    votes[1] += 1;
                                }
                            }

                            else {
                                if (x[55] <= 150.5) {
                                    votes[0] += 1;
                                }

                                else {
                                    votes[1] += 1;
                                }
                            }
                        }

                        else {
                            if (x[94] <= -87.0) {
                                if (x[12] <= 3880.5) {
                                    votes[1] += 1;
                                }

                                else {
                                    votes[0] += 1;
                                }
                            }

                            else {
                                if (x[49] <= -97.0) {
                                    votes[1] += 1;
                                }

                                else {
                                    votes[0] += 1;
                                }
                            }
                        }

                        // tree #32
                        if (x[15] <= 3167.0) {
                            if (x[9] <= 1646.0) {
                                if (x[4] <= 3186.5) {
                                    votes[1] += 1;
                                }

                                else {
                                    votes[0] += 1;
                                }
                            }

                            else {
                                if (x[75] <= 69.5) {
                                    votes[0] += 1;
                                }

                                else {
                                    votes[1] += 1;
                                }
                            }
                        }

                        else {
                            if (x[2] <= 4074.0) {
                                if (x[64] <= 2097.5) {
                                    votes[0] += 1;
                                }

                                else {
                                    votes[1] += 1;
                                }
                            }

                            else {
                                votes[1] += 1;
                            }
                        }

                        // tree #33
                        if (x[37] <= 3210.5) {
                            if (x[18] <= 3038.5) {
                                if (x[8] <= 3362.5) {
                                    votes[1] += 1;
                                }

                                else {
                                    votes[0] += 1;
                                }
                            }

                            else {
                                if (x[100] <= 368.0) {
                                    votes[0] += 1;
                                }

                                else {
                                    votes[1] += 1;
                                }
                            }
                        }

                        else {
                            if (x[104] <= 30.0) {
                                if (x[13] <= 666.0) {
                                    votes[1] += 1;
                                }

                                else {
                                    votes[0] += 1;
                                }
                            }

                            else {
                                if (x[19] <= 1949.0) {
                                    votes[1] += 1;
                                }

                                else {
                                    votes[0] += 1;
                                }
                            }
                        }

                        // tree #34
                        if (x[12] <= 2963.5) {
                            if (x[8] <= 2767.5) {
                                if (x[21] <= 2885.0) {
                                    votes[1] += 1;
                                }

                                else {
                                    votes[0] += 1;
                                }
                            }

                            else {
                                if (x[126] <= 214.0) {
                                    votes[0] += 1;
                                }

                                else {
                                    votes[1] += 1;
                                }
                            }
                        }

                        else {
                            if (x[116] <= 226.5) {
                                if (x[96] <= 86.0) {
                                    votes[0] += 1;
                                }

                                else {
                                    votes[1] += 1;
                                }
                            }

                            else {
                                votes[1] += 1;
                            }
                        }

                        // tree #35
                        if (x[14] <= 2872.0) {
                            if (x[83] <= 3597.0) {
                                if (x[45] <= 2884.5) {
                                    votes[1] += 1;
                                }

                                else {
                                    votes[0] += 1;
                                }
                            }

                            else {
                                if (x[15] <= 7.0) {
                                    votes[0] += 1;
                                }

                                else {
                                    votes[1] += 1;
                                }
                            }
                        }

                        else {
                            if (x[13] <= 4965.5) {
                                if (x[85] <= 1811.5) {
                                    votes[0] += 1;
                                }

                                else {
                                    votes[1] += 1;
                                }
                            }

                            else {
                                votes[1] += 1;
                            }
                        }

                        // tree #36
                        if (x[8] <= 2501.5) {
                            if (x[19] <= 2695.0) {
                                if (x[121] <= 3036.0) {
                                    votes[1] += 1;
                                }

                                else {
                                    votes[0] += 1;
                                }
                            }

                            else {
                                if (x[119] <= -83.5) {
                                    votes[1] += 1;
                                }

                                else {
                                    votes[0] += 1;
                                }
                            }
                        }

                        else {
                            if (x[116] <= -54.5) {
                                votes[1] += 1;
                            }

                            else {
                                if (x[100] <= 436.0) {
                                    votes[0] += 1;
                                }

                                else {
                                    votes[1] += 1;
                                }
                            }
                        }

                        // tree #37
                        if (x[7] <= 2827.0) {
                            if (x[4] <= 2669.0) {
                                if (x[30] <= 2641.5) {
                                    votes[1] += 1;
                                }

                                else {
                                    votes[0] += 1;
                                }
                            }

                            else {
                                if (x[66] <= 576.0) {
                                    votes[0] += 1;
                                }

                                else {
                                    votes[1] += 1;
                                }
                            }
                        }

                        else {
                            if (x[72] <= -67.5) {
                                votes[1] += 1;
                            }

                            else {
                                if (x[49] <= -100.0) {
                                    votes[1] += 1;
                                }

                                else {
                                    votes[0] += 1;
                                }
                            }
                        }

                        // tree #38
                        if (x[11] <= 2959.5) {
                            if (x[2] <= 3282.5) {
                                if (x[19] <= 2981.5) {
                                    votes[1] += 1;
                                }

                                else {
                                    votes[0] += 1;
                                }
                            }

                            else {
                                if (x[70] <= -44.0) {
                                    votes[1] += 1;
                                }

                                else {
                                    votes[0] += 1;
                                }
                            }
                        }

                        else {
                            if (x[120] <= -221.5) {
                                votes[1] += 1;
                            }

                            else {
                                if (x[0] <= 4652.5) {
                                    votes[0] += 1;
                                }

                                else {
                                    votes[1] += 1;
                                }
                            }
                        }

                        // tree #39
                        if (x[35] <= 2930.5) {
                            if (x[4] <= 2594.5) {
                                if (x[15] <= 3298.5) {
                                    votes[1] += 1;
                                }

                                else {
                                    votes[0] += 1;
                                }
                            }

                            else {
                                if (x[117] <= 211.5) {
                                    votes[0] += 1;
                                }

                                else {
                                    votes[1] += 1;
                                }
                            }
                        }

                        else {
                            if (x[57] <= -153.0) {
                                votes[1] += 1;
                            }

                            else {
                                votes[0] += 1;
                            }
                        }

                        // tree #40
                        if (x[66] <= -22.0) {
                            if (x[22] <= -1154.0) {
                                votes[0] += 1;
                            }

                            else {
                                if (x[93] <= 2497.0) {
                                    votes[1] += 1;
                                }

                                else {
                                    votes[1] += 1;
                                }
                            }
                        }

                        else {
                            if (x[9] <= 2801.0) {
                                if (x[4] <= 2300.5) {
                                    votes[1] += 1;
                                }

                                else {
                                    votes[0] += 1;
                                }
                            }

                            else {
                                if (x[12] <= 26.0) {
                                    votes[1] += 1;
                                }

                                else {
                                    votes[0] += 1;
                                }
                            }
                        }

                        // tree #41
                        if (x[20] <= 2915.5) {
                            if (x[15] <= 3127.0) {
                                if (x[23] <= 2957.5) {
                                    votes[1] += 1;
                                }

                                else {
                                    votes[0] += 1;
                                }
                            }

                            else {
                                if (x[71] <= 631.0) {
                                    votes[0] += 1;
                                }

                                else {
                                    votes[1] += 1;
                                }
                            }
                        }

                        else {
                            if (x[118] <= 431.5) {
                                if (x[33] <= 38.5) {
                                    votes[0] += 1;
                                }

                                else {
                                    votes[1] += 1;
                                }
                            }

                            else {
                                votes[1] += 1;
                            }
                        }

                        // tree #42
                        if (x[26] <= 2817.0) {
                            if (x[15] <= 3127.0) {
                                if (x[50] <= 2930.5) {
                                    votes[1] += 1;
                                }

                                else {
                                    votes[0] += 1;
                                }
                            }

                            else {
                                if (x[63] <= 2143.5) {
                                    votes[0] += 1;
                                }

                                else {
                                    votes[1] += 1;
                                }
                            }
                        }

                        else {
                            if (x[126] <= -287.5) {
                                votes[1] += 1;
                            }

                            else {
                                if (x[69] <= 442.0) {
                                    votes[0] += 1;
                                }

                                else {
                                    votes[1] += 1;
                                }
                            }
                        }

                        // tree #43
                        if (x[23] <= 3078.5) {
                            if (x[7] <= 2925.5) {
                                if (x[1] <= 3489.0) {
                                    votes[1] += 1;
                                }

                                else {
                                    votes[1] += 1;
                                }
                            }

                            else {
                                if (x[28] <= -55.0) {
                                    votes[1] += 1;
                                }

                                else {
                                    votes[0] += 1;
                                }
                            }
                        }

                        else {
                            if (x[5] <= 16.0) {
                                if (x[4] <= -516.0) {
                                    votes[0] += 1;
                                }

                                else {
                                    votes[1] += 1;
                                }
                            }

                            else {
                                votes[0] += 1;
                            }
                        }

                        // tree #44
                        if (x[8] <= 2108.0) {
                            if (x[5] <= 2300.5) {
                                if (x[26] <= 2807.5) {
                                    votes[1] += 1;
                                }

                                else {
                                    votes[1] += 1;
                                }
                            }

                            else {
                                if (x[116] <= 158.5) {
                                    votes[0] += 1;
                                }

                                else {
                                    votes[1] += 1;
                                }
                            }
                        }

                        else {
                            if (x[65] <= 242.0) {
                                if (x[109] <= 179.5) {
                                    votes[0] += 1;
                                }

                                else {
                                    votes[1] += 1;
                                }
                            }

                            else {
                                if (x[78] <= -603.5) {
                                    votes[0] += 1;
                                }

                                else {
                                    votes[1] += 1;
                                }
                            }
                        }

                        // tree #45
                        if (x[17] <= 1417.0) {
                            if (x[9] <= 2808.0) {
                                if (x[45] <= 2890.0) {
                                    votes[1] += 1;
                                }

                                else {
                                    votes[0] += 1;
                                }
                            }

                            else {
                                if (x[6] <= 3991.0) {
                                    votes[0] += 1;
                                }

                                else {
                                    votes[1] += 1;
                                }
                            }
                        }

                        else {
                            if (x[13] <= 3029.0) {
                                if (x[111] <= 72.0) {
                                    votes[1] += 1;
                                }

                                else {
                                    votes[1] += 1;
                                }
                            }

                            else {
                                if (x[92] <= -562.0) {
                                    votes[1] += 1;
                                }

                                else {
                                    votes[0] += 1;
                                }
                            }
                        }

                        // tree #46
                        if (x[13] <= 2890.5) {
                            if (x[7] <= 3325.5) {
                                if (x[12] <= 3284.5) {
                                    votes[1] += 1;
                                }

                                else {
                                    votes[0] += 1;
                                }
                            }

                            else {
                                if (x[37] <= 389.5) {
                                    votes[0] += 1;
                                }

                                else {
                                    votes[1] += 1;
                                }
                            }
                        }

                        else {
                            if (x[63] <= 1070.0) {
                                if (x[109] <= -204.5) {
                                    votes[1] += 1;
                                }

                                else {
                                    votes[0] += 1;
                                }
                            }

                            else {
                                votes[1] += 1;
                            }
                        }

                        // tree #47
                        if (x[9] <= 2938.0) {
                            if (x[14] <= 3390.0) {
                                if (x[0] <= 3452.5) {
                                    votes[1] += 1;
                                }

                                else {
                                    votes[1] += 1;
                                }
                            }

                            else {
                                votes[0] += 1;
                            }
                        }

                        else {
                            if (x[53] <= -13.5) {
                                votes[1] += 1;
                            }

                            else {
                                if (x[99] <= 502.5) {
                                    votes[0] += 1;
                                }

                                else {
                                    votes[1] += 1;
                                }
                            }
                        }

                        // tree #48
                        if (x[9] <= 2938.0) {
                            if (x[6] <= 2880.0) {
                                if (x[14] <= 3390.0) {
                                    votes[1] += 1;
                                }

                                else {
                                    votes[0] += 1;
                                }
                            }

                            else {
                                if (x[111] <= -13.5) {
                                    votes[1] += 1;
                                }

                                else {
                                    votes[0] += 1;
                                }
                            }
                        }

                        else {
                            if (x[125] <= 174.5) {
                                if (x[82] <= 55.5) {
                                    votes[0] += 1;
                                }

                                else {
                                    votes[0] += 1;
                                }
                            }

                            else {
                                if (x[17] <= 29.5) {
                                    votes[0] += 1;
                                }

                                else {
                                    votes[1] += 1;
                                }
                            }
                        }

                        // tree #49
                        if (x[11] <= 910.5) {
                            if (x[7] <= 3029.0) {
                                if (x[22] <= 3025.0) {
                                    votes[1] += 1;
                                }

                                else {
                                    votes[0] += 1;
                                }
                            }

                            else {
                                if (x[66] <= 35.5) {
                                    votes[0] += 1;
                                }

                                else {
                                    votes[1] += 1;
                                }
                            }
                        }

                        else {
                            if (x[83] <= 129.5) {
                                if (x[79] <= 135.5) {
                                    votes[0] += 1;
                                }

                                else {
                                    votes[1] += 1;
                                }
                            }

                            else {
                                votes[1] += 1;
                            }
                        }

                        // tree #50
                        if (x[10] <= 2801.0) {
                            if (x[4] <= 1071.0) {
                                if (x[13] <= 2908.0) {
                                    votes[1] += 1;
                                }

                                else {
                                    votes[1] += 1;
                                }
                            }

                            else {
                                if (x[74] <= 109.0) {
                                    votes[0] += 1;
                                }

                                else {
                                    votes[1] += 1;
                                }
                            }
                        }

                        else {
                            if (x[109] <= 62.5) {
                                if (x[112] <= 265.5) {
                                    votes[0] += 1;
                                }

                                else {
                                    votes[1] += 1;
                                }
                            }

                            else {
                                votes[1] += 1;
                            }
                        }

                        // tree #51
                        if (x[13] <= 2928.0) {
                            if (x[22] <= 2885.0) {
                                if (x[3] <= 3269.0) {
                                    votes[1] += 1;
                                }

                                else {
                                    votes[0] += 1;
                                }
                            }

                            else {
                                if (x[78] <= 38.5) {
                                    votes[0] += 1;
                                }

                                else {
                                    votes[1] += 1;
                                }
                            }
                        }

                        else {
                            if (x[67] <= 55.5) {
                                if (x[54] <= -103.0) {
                                    votes[1] += 1;
                                }

                                else {
                                    votes[0] += 1;
                                }
                            }

                            else {
                                if (x[34] <= -671.5) {
                                    votes[0] += 1;
                                }

                                else {
                                    votes[1] += 1;
                                }
                            }
                        }

                        // tree #52
                        if (x[10] <= 3302.5) {
                            if (x[7] <= 3250.5) {
                                if (x[66] <= 2971.0) {
                                    votes[1] += 1;
                                }

                                else {
                                    votes[0] += 1;
                                }
                            }

                            else {
                                if (x[120] <= -6.5) {
                                    votes[1] += 1;
                                }

                                else {
                                    votes[0] += 1;
                                }
                            }
                        }

                        else {
                            if (x[121] <= -47.5) {
                                if (x[59] <= -808.5) {
                                    votes[0] += 1;
                                }

                                else {
                                    votes[1] += 1;
                                }
                            }

                            else {
                                if (x[89] <= -306.0) {
                                    votes[1] += 1;
                                }

                                else {
                                    votes[0] += 1;
                                }
                            }
                        }

                        // tree #53
                        if (x[2] <= 1456.0) {
                            if (x[4] <= 2017.0) {
                                if (x[57] <= 3081.5) {
                                    votes[1] += 1;
                                }

                                else {
                                    votes[0] += 1;
                                }
                            }

                            else {
                                if (x[108] <= 304.0) {
                                    votes[0] += 1;
                                }

                                else {
                                    votes[1] += 1;
                                }
                            }
                        }

                        else {
                            if (x[1] <= 4105.0) {
                                if (x[12] <= 2891.0) {
                                    votes[1] += 1;
                                }

                                else {
                                    votes[0] += 1;
                                }
                            }

                            else {
                                votes[1] += 1;
                            }
                        }

                        // tree #54
                        if (x[18] <= 3091.0) {
                            if (x[4] <= 2896.5) {
                                if (x[12] <= 897.0) {
                                    votes[1] += 1;
                                }

                                else {
                                    votes[1] += 1;
                                }
                            }

                            else {
                                if (x[75] <= 106.5) {
                                    votes[0] += 1;
                                }

                                else {
                                    votes[1] += 1;
                                }
                            }
                        }

                        else {
                            if (x[71] <= -34.0) {
                                votes[1] += 1;
                            }

                            else {
                                if (x[121] <= -225.5) {
                                    votes[1] += 1;
                                }

                                else {
                                    votes[0] += 1;
                                }
                            }
                        }

                        // tree #55
                        if (x[17] <= 1442.5) {
                            if (x[4] <= 2579.5) {
                                if (x[13] <= 2879.5) {
                                    votes[1] += 1;
                                }

                                else {
                                    votes[0] += 1;
                                }
                            }

                            else {
                                if (x[91] <= 20.0) {
                                    votes[0] += 1;
                                }

                                else {
                                    votes[1] += 1;
                                }
                            }
                        }

                        else {
                            if (x[125] <= 143.0) {
                                if (x[111] <= 157.5) {
                                    votes[0] += 1;
                                }

                                else {
                                    votes[1] += 1;
                                }
                            }

                            else {
                                votes[1] += 1;
                            }
                        }

                        // tree #56
                        if (x[20] <= 2915.5) {
                            if (x[10] <= 2911.0) {
                                if (x[9] <= -609.5) {
                                    votes[1] += 1;
                                }

                                else {
                                    votes[1] += 1;
                                }
                            }

                            else {
                                if (x[107] <= -213.5) {
                                    votes[1] += 1;
                                }

                                else {
                                    votes[0] += 1;
                                }
                            }
                        }

                        else {
                            if (x[49] <= 76.0) {
                                if (x[87] <= 76.5) {
                                    votes[0] += 1;
                                }

                                else {
                                    votes[1] += 1;
                                }
                            }

                            else {
                                votes[1] += 1;
                            }
                        }

                        // tree #57
                        if (x[15] <= 3229.0) {
                            if (x[10] <= 2808.0) {
                                if (x[5] <= 2017.0) {
                                    votes[1] += 1;
                                }

                                else {
                                    votes[0] += 1;
                                }
                            }

                            else {
                                if (x[33] <= -534.5) {
                                    votes[1] += 1;
                                }

                                else {
                                    votes[0] += 1;
                                }
                            }
                        }

                        else {
                            if (x[66] <= 921.0) {
                                if (x[123] <= 497.5) {
                                    votes[0] += 1;
                                }

                                else {
                                    votes[1] += 1;
                                }
                            }

                            else {
                                votes[1] += 1;
                            }
                        }

                        // tree #58
                        if (x[2] <= 2759.5) {
                            if (x[21] <= 3027.5) {
                                if (x[8] <= 2928.5) {
                                    votes[1] += 1;
                                }

                                else {
                                    votes[0] += 1;
                                }
                            }

                            else {
                                votes[0] += 1;
                            }
                        }

                        else {
                            if (x[4] <= 774.5) {
                                votes[1] += 1;
                            }

                            else {
                                if (x[67] <= 525.0) {
                                    votes[0] += 1;
                                }

                                else {
                                    votes[1] += 1;
                                }
                            }
                        }

                        // tree #59
                        if (x[4] <= 2687.5) {
                            if (x[21] <= 3449.0) {
                                if (x[8] <= 3427.0) {
                                    votes[1] += 1;
                                }

                                else {
                                    votes[0] += 1;
                                }
                            }

                            else {
                                if (x[70] <= 1.0) {
                                    votes[1] += 1;
                                }

                                else {
                                    votes[0] += 1;
                                }
                            }
                        }

                        else {
                            if (x[110] <= 62.5) {
                                if (x[68] <= 150.0) {
                                    votes[0] += 1;
                                }

                                else {
                                    votes[1] += 1;
                                }
                            }

                            else {
                                if (x[28] <= -966.5) {
                                    votes[0] += 1;
                                }

                                else {
                                    votes[1] += 1;
                                }
                            }
                        }

                        // tree #60
                        if (x[7] <= 2772.5) {
                            if (x[18] <= 3113.0) {
                                if (x[0] <= 3237.0) {
                                    votes[1] += 1;
                                }

                                else {
                                    votes[1] += 1;
                                }
                            }

                            else {
                                if (x[89] <= 311.0) {
                                    votes[0] += 1;
                                }

                                else {
                                    votes[1] += 1;
                                }
                            }
                        }

                        else {
                            if (x[114] <= -151.5) {
                                votes[1] += 1;
                            }

                            else {
                                if (x[23] <= 4227.0) {
                                    votes[0] += 1;
                                }

                                else {
                                    votes[1] += 1;
                                }
                            }
                        }

                        // tree #61
                        if (x[12] <= 985.5) {
                            if (x[53] <= 2518.5) {
                                if (x[14] <= 3474.0) {
                                    votes[1] += 1;
                                }

                                else {
                                    votes[0] += 1;
                                }
                            }

                            else {
                                if (x[45] <= 2988.5) {
                                    votes[0] += 1;
                                }

                                else {
                                    votes[1] += 1;
                                }
                            }
                        }

                        else {
                            if (x[68] <= 55.0) {
                                if (x[6] <= 37.5) {
                                    votes[0] += 1;
                                }

                                else {
                                    votes[0] += 1;
                                }
                            }

                            else {
                                if (x[33] <= 8.0) {
                                    votes[0] += 1;
                                }

                                else {
                                    votes[1] += 1;
                                }
                            }
                        }

                        // tree #62
                        if (x[13] <= 1617.5) {
                            if (x[18] <= 2981.5) {
                                if (x[99] <= 2933.5) {
                                    votes[1] += 1;
                                }

                                else {
                                    votes[0] += 1;
                                }
                            }

                            else {
                                if (x[76] <= 9.0) {
                                    votes[0] += 1;
                                }

                                else {
                                    votes[1] += 1;
                                }
                            }
                        }

                        else {
                            if (x[72] <= 223.5) {
                                if (x[119] <= 192.5) {
                                    votes[0] += 1;
                                }

                                else {
                                    votes[1] += 1;
                                }
                            }

                            else {
                                if (x[29] <= -762.5) {
                                    votes[0] += 1;
                                }

                                else {
                                    votes[1] += 1;
                                }
                            }
                        }

                        // tree #63
                        if (x[6] <= 2784.5) {
                            if (x[24] <= 2952.5) {
                                if (x[2] <= 3282.5) {
                                    votes[1] += 1;
                                }

                                else {
                                    votes[1] += 1;
                                }
                            }

                            else {
                                if (x[28] <= 3952.5) {
                                    votes[0] += 1;
                                }

                                else {
                                    votes[1] += 1;
                                }
                            }
                        }

                        else {
                            if (x[12] <= 28.0) {
                                if (x[35] <= 7.0) {
                                    votes[1] += 1;
                                }

                                else {
                                    votes[0] += 1;
                                }
                            }

                            else {
                                if (x[77] <= -213.0) {
                                    votes[1] += 1;
                                }

                                else {
                                    votes[0] += 1;
                                }
                            }
                        }

                        // tree #64
                        if (x[36] <= 2991.5) {
                            if (x[17] <= 1488.5) {
                                if (x[12] <= 3576.0) {
                                    votes[1] += 1;
                                }

                                else {
                                    votes[0] += 1;
                                }
                            }

                            else {
                                if (x[84] <= 341.0) {
                                    votes[0] += 1;
                                }

                                else {
                                    votes[1] += 1;
                                }
                            }
                        }

                        else {
                            if (x[46] <= -190.0) {
                                votes[1] += 1;
                            }

                            else {
                                if (x[37] <= 1756.5) {
                                    votes[0] += 1;
                                }

                                else {
                                    votes[0] += 1;
                                }
                            }
                        }

                        // tree #65
                        if (x[4] <= 3186.5) {
                            if (x[10] <= 2959.0) {
                                if (x[15] <= 3390.0) {
                                    votes[1] += 1;
                                }

                                else {
                                    votes[0] += 1;
                                }
                            }

                            else {
                                if (x[107] <= -33.5) {
                                    votes[1] += 1;
                                }

                                else {
                                    votes[0] += 1;
                                }
                            }
                        }

                        else {
                            if (x[35] <= -263.5) {
                                if (x[93] <= 16.0) {
                                    votes[0] += 1;
                                }

                                else {
                                    votes[1] += 1;
                                }
                            }

                            else {
                                if (x[73] <= -676.5) {
                                    votes[1] += 1;
                                }

                                else {
                                    votes[0] += 1;
                                }
                            }
                        }

                        // tree #66
                        if (x[6] <= 2695.0) {
                            if (x[19] <= 2730.5) {
                                if (x[14] <= 3327.5) {
                                    votes[1] += 1;
                                }

                                else {
                                    votes[0] += 1;
                                }
                            }

                            else {
                                if (x[90] <= 289.0) {
                                    votes[0] += 1;
                                }

                                else {
                                    votes[1] += 1;
                                }
                            }
                        }

                        else {
                            if (x[122] <= -35.5) {
                                votes[1] += 1;
                            }

                            else {
                                if (x[109] <= 1564.0) {
                                    votes[0] += 1;
                                }

                                else {
                                    votes[1] += 1;
                                }
                            }
                        }

                        // tree #67
                        if (x[7] <= 2504.0) {
                            if (x[15] <= 2807.5) {
                                if (x[4] <= 2669.0) {
                                    votes[1] += 1;
                                }

                                else {
                                    votes[0] += 1;
                                }
                            }

                            else {
                                if (x[61] <= 36.5) {
                                    votes[0] += 1;
                                }

                                else {
                                    votes[1] += 1;
                                }
                            }
                        }

                        else {
                            if (x[54] <= -96.5) {
                                votes[1] += 1;
                            }

                            else {
                                if (x[75] <= -51.0) {
                                    votes[1] += 1;
                                }

                                else {
                                    votes[0] += 1;
                                }
                            }
                        }

                        // tree #68
                        if (x[7] <= 2501.5) {
                            if (x[12] <= 3284.5) {
                                if (x[80] <= 2869.5) {
                                    votes[1] += 1;
                                }

                                else {
                                    votes[0] += 1;
                                }
                            }

                            else {
                                if (x[106] <= 389.0) {
                                    votes[0] += 1;
                                }

                                else {
                                    votes[1] += 1;
                                }
                            }
                        }

                        else {
                            if (x[56] <= -82.0) {
                                votes[1] += 1;
                            }

                            else {
                                if (x[93] <= 1943.5) {
                                    votes[0] += 1;
                                }

                                else {
                                    votes[1] += 1;
                                }
                            }
                        }

                        // tree #69
                        if (x[20] <= 3376.5) {
                            if (x[17] <= 1424.0) {
                                if (x[39] <= 3352.0) {
                                    votes[1] += 1;
                                }

                                else {
                                    votes[0] += 1;
                                }
                            }

                            else {
                                if (x[102] <= 59.5) {
                                    votes[0] += 1;
                                }

                                else {
                                    votes[1] += 1;
                                }
                            }
                        }

                        else {
                            if (x[73] <= 126.0) {
                                votes[0] += 1;
                            }

                            else {
                                votes[1] += 1;
                            }
                        }

                        // tree #70
                        if (x[8] <= 2135.0) {
                            if (x[14] <= 3545.0) {
                                if (x[4] <= 1093.0) {
                                    votes[1] += 1;
                                }

                                else {
                                    votes[1] += 1;
                                }
                            }

                            else {
                                if (x[124] <= -393.5) {
                                    votes[1] += 1;
                                }

                                else {
                                    votes[0] += 1;
                                }
                            }
                        }

                        else {
                            if (x[109] <= 1564.0) {
                                if (x[99] <= -220.0) {
                                    votes[1] += 1;
                                }

                                else {
                                    votes[0] += 1;
                                }
                            }

                            else {
                                votes[1] += 1;
                            }
                        }

                        // tree #71
                        if (x[11] <= 1278.0) {
                            if (x[0] <= 3239.5) {
                                if (x[33] <= 3463.0) {
                                    votes[1] += 1;
                                }

                                else {
                                    votes[1] += 1;
                                }
                            }

                            else {
                                if (x[5] <= 580.5) {
                                    votes[1] += 1;
                                }

                                else {
                                    votes[0] += 1;
                                }
                            }
                        }

                        else {
                            if (x[84] <= 210.0) {
                                if (x[90] <= 155.0) {
                                    votes[0] += 1;
                                }

                                else {
                                    votes[1] += 1;
                                }
                            }

                            else {
                                votes[1] += 1;
                            }
                        }

                        // tree #72
                        if (x[12] <= 985.5) {
                            if (x[20] <= 3324.0) {
                                if (x[6] <= 2843.0) {
                                    votes[1] += 1;
                                }

                                else {
                                    votes[0] += 1;
                                }
                            }

                            else {
                                votes[0] += 1;
                            }
                        }

                        else {
                            if (x[7] <= 2193.0) {
                                if (x[35] <= 327.0) {
                                    votes[0] += 1;
                                }

                                else {
                                    votes[1] += 1;
                                }
                            }

                            else {
                                if (x[79] <= 1486.5) {
                                    votes[0] += 1;
                                }

                                else {
                                    votes[1] += 1;
                                }
                            }
                        }

                        // tree #73
                        if (x[26] <= 2926.5) {
                            if (x[59] <= 2876.5) {
                                if (x[2] <= 3208.5) {
                                    votes[1] += 1;
                                }

                                else {
                                    votes[1] += 1;
                                }
                            }

                            else {
                                if (x[77] <= 1734.5) {
                                    votes[0] += 1;
                                }

                                else {
                                    votes[1] += 1;
                                }
                            }
                        }

                        else {
                            if (x[97] <= 1026.5) {
                                votes[0] += 1;
                            }

                            else {
                                votes[1] += 1;
                            }
                        }

                        // tree #74
                        if (x[49] <= 2930.5) {
                            if (x[7] <= 1530.0) {
                                if (x[13] <= 2910.0) {
                                    votes[1] += 1;
                                }

                                else {
                                    votes[0] += 1;
                                }
                            }

                            else {
                                if (x[110] <= 102.0) {
                                    votes[0] += 1;
                                }

                                else {
                                    votes[1] += 1;
                                }
                            }
                        }

